digraph Tree {
node [shape=box] ;
0 [label="X[18] <= 0.5\ngini = 0.282\nsamples = 984\nvalue = [817, 167]"] ;
1 [label="X[23] <= 2.5\ngini = 0.187\nsamples = 699\nvalue = [626, 73]"] ;
0 -> 1 [labeldistance=2.5, labelangle=45, headlabel="True"] ;
2 [label="X[10] <= 0.5\ngini = 0.448\nsamples = 65\nvalue = [43, 22]"] ;
1 -> 2 ;
3 [label="gini = 0.0\nsamples = 4\nvalue = [0, 4]"] ;
2 -> 3 ;
4 [label="X[4] <= 13.0\ngini = 0.416\nsamples = 61\nvalue = [43, 18]"] ;
2 -> 4 ;
5 [label="X[15] <= 52.0\ngini = 0.348\nsamples = 49\nvalue = [38, 11]"] ;
4 -> 5 ;
6 [label="X[2] <= 150.0\ngini = 0.48\nsamples = 20\nvalue = [12, 8]"] ;
5 -> 6 ;
7 [label="gini = 0.0\nsamples = 3\nvalue = [0, 3]"] ;
6 -> 7 ;
8 [label="X[16] <= 1286.0\ngini = 0.415\nsamples = 17\nvalue = [12, 5]"] ;
6 -> 8 ;
9 [label="X[15] <= 41.0\ngini = 0.32\nsamples = 15\nvalue = [12, 3]"] ;
8 -> 9 ;
10 [label="X[15] <= 5.5\ngini = 0.153\nsamples = 12\nvalue = [11, 1]"] ;
9 -> 10 ;
11 [label="X[19] <= 6.5\ngini = 0.5\nsamples = 2\nvalue = [1, 1]"] ;
10 -> 11 ;
12 [label="gini = 0.0\nsamples = 1\nvalue = [0, 1]"] ;
11 -> 12 ;
13 [label="gini = 0.0\nsamples = 1\nvalue = [1, 0]"] ;
11 -> 13 ;
14 [label="gini = 0.0\nsamples = 10\nvalue = [10, 0]"] ;
10 -> 14 ;
15 [label="X[9] <= 46.0\ngini = 0.444\nsamples = 3\nvalue = [1, 2]"] ;
9 -> 15 ;
16 [label="gini = 0.0\nsamples = 2\nvalue = [0, 2]"] ;
15 -> 16 ;
17 [label="gini = 0.0\nsamples = 1\nvalue = [1, 0]"] ;
15 -> 17 ;
18 [label="gini = 0.0\nsamples = 2\nvalue = [0, 2]"] ;
8 -> 18 ;
19 [label="X[6] <= 4.5\ngini = 0.185\nsamples = 29\nvalue = [26, 3]"] ;
5 -> 19 ;
20 [label="X[16] <= 302.5\ngini = 0.074\nsamples = 26\nvalue = [25, 1]"] ;
19 -> 20 ;
21 [label="X[1] <= 1.5\ngini = 0.375\nsamples = 4\nvalue = [3, 1]"] ;
20 -> 21 ;
22 [label="gini = 0.0\nsamples = 1\nvalue = [0, 1]"] ;
21 -> 22 ;
23 [label="gini = 0.0\nsamples = 3\nvalue = [3, 0]"] ;
21 -> 23 ;
24 [label="gini = 0.0\nsamples = 22\nvalue = [22, 0]"] ;
20 -> 24 ;
25 [label="X[10] <= 1.5\ngini = 0.444\nsamples = 3\nvalue = [1, 2]"] ;
19 -> 25 ;
26 [label="gini = 0.0\nsamples = 1\nvalue = [1, 0]"] ;
25 -> 26 ;
27 [label="gini = 0.0\nsamples = 2\nvalue = [0, 2]"] ;
25 -> 27 ;
28 [label="X[19] <= 9.5\ngini = 0.486\nsamples = 12\nvalue = [5, 7]"] ;
4 -> 28 ;
29 [label="X[29] <= 1.0\ngini = 0.346\nsamples = 9\nvalue = [2, 7]"] ;
28 -> 29 ;
30 [label="gini = 0.0\nsamples = 6\nvalue = [0, 6]"] ;
29 -> 30 ;
31 [label="X[25] <= 1.5\ngini = 0.444\nsamples = 3\nvalue = [2, 1]"] ;
29 -> 31 ;
32 [label="gini = 0.0\nsamples = 1\nvalue = [0, 1]"] ;
31 -> 32 ;
33 [label="gini = 0.0\nsamples = 2\nvalue = [2, 0]"] ;
31 -> 33 ;
34 [label="gini = 0.0\nsamples = 3\nvalue = [3, 0]"] ;
28 -> 34 ;
35 [label="X[6] <= 4.5\ngini = 0.148\nsamples = 634\nvalue = [583, 51]"] ;
1 -> 35 ;
36 [label="X[12] <= 6.5\ngini = 0.129\nsamples = 579\nvalue = [539, 40]"] ;
35 -> 36 ;
37 [label="X[26] <= 30.5\ngini = 0.091\nsamples = 418\nvalue = [398, 20]"] ;
36 -> 37 ;
38 [label="X[27] <= 6.5\ngini = 0.087\nsamples = 416\nvalue = [397, 19]"] ;
37 -> 38 ;
39 [label="X[14] <= 1.5\ngini = 0.124\nsamples = 270\nvalue = [252, 18]"] ;
38 -> 39 ;
40 [label="X[17] <= 5.5\ngini = 0.08\nsamples = 192\nvalue = [184, 8]"] ;
39 -> 40 ;
41 [label="X[26] <= 6.5\ngini = 0.04\nsamples = 148\nvalue = [145, 3]"] ;
40 -> 41 ;
42 [label="gini = 0.0\nsamples = 120\nvalue = [120, 0]"] ;
41 -> 42 ;
43 [label="X[19] <= 3.5\ngini = 0.191\nsamples = 28\nvalue = [25, 3]"] ;
41 -> 43 ;
44 [label="gini = 0.0\nsamples = 17\nvalue = [17, 0]"] ;
43 -> 44 ;
45 [label="X[9] <= 48.5\ngini = 0.397\nsamples = 11\nvalue = [8, 3]"] ;
43 -> 45 ;
46 [label="gini = 0.0\nsamples = 6\nvalue = [6, 0]"] ;
45 -> 46 ;
47 [label="X[20] <= 0.5\ngini = 0.48\nsamples = 5\nvalue = [2, 3]"] ;
45 -> 47 ;
48 [label="gini = 0.0\nsamples = 3\nvalue = [0, 3]"] ;
47 -> 48 ;
49 [label="gini = 0.0\nsamples = 2\nvalue = [2, 0]"] ;
47 -> 49 ;
50 [label="X[16] <= 15.5\ngini = 0.201\nsamples = 44\nvalue = [39, 5]"] ;
40 -> 50 ;
51 [label="gini = 0.0\nsamples = 1\nvalue = [0, 1]"] ;
50 -> 51 ;
52 [label="X[7] <= 0.5\ngini = 0.169\nsamples = 43\nvalue = [39, 4]"] ;
50 -> 52 ;
53 [label="X[0] <= 14.5\ngini = 0.469\nsamples = 8\nvalue = [5, 3]"] ;
52 -> 53 ;
54 [label="gini = 0.0\nsamples = 4\nvalue = [4, 0]"] ;
53 -> 54 ;
55 [label="X[14] <= 0.5\ngini = 0.375\nsamples = 4\nvalue = [1, 3]"] ;
53 -> 55 ;
56 [label="gini = 0.0\nsamples = 3\nvalue = [0, 3]"] ;
55 -> 56 ;
57 [label="gini = 0.0\nsamples = 1\nvalue = [1, 0]"] ;
55 -> 57 ;
58 [label="X[15] <= 97.5\ngini = 0.056\nsamples = 35\nvalue = [34, 1]"] ;
52 -> 58 ;
59 [label="X[3] <= 0.5\ngini = 0.5\nsamples = 2\nvalue = [1, 1]"] ;
58 -> 59 ;
60 [label="gini = 0.0\nsamples = 1\nvalue = [0, 1]"] ;
59 -> 60 ;
61 [label="gini = 0.0\nsamples = 1\nvalue = [1, 0]"] ;
59 -> 61 ;
62 [label="gini = 0.0\nsamples = 33\nvalue = [33, 0]"] ;
58 -> 62 ;
63 [label="X[13] <= 0.5\ngini = 0.224\nsamples = 78\nvalue = [68, 10]"] ;
39 -> 63 ;
64 [label="X[9] <= 48.0\ngini = 0.486\nsamples = 12\nvalue = [7, 5]"] ;
63 -> 64 ;
65 [label="X[23] <= 9.5\ngini = 0.245\nsamples = 7\nvalue = [6, 1]"] ;
64 -> 65 ;
66 [label="gini = 0.0\nsamples = 5\nvalue = [5, 0]"] ;
65 -> 66 ;
67 [label="X[24] <= 4.5\ngini = 0.5\nsamples = 2\nvalue = [1, 1]"] ;
65 -> 67 ;
68 [label="gini = 0.0\nsamples = 1\nvalue = [0, 1]"] ;
67 -> 68 ;
69 [label="gini = 0.0\nsamples = 1\nvalue = [1, 0]"] ;
67 -> 69 ;
70 [label="X[26] <= 5.5\ngini = 0.32\nsamples = 5\nvalue = [1, 4]"] ;
64 -> 70 ;
71 [label="gini = 0.0\nsamples = 4\nvalue = [0, 4]"] ;
70 -> 71 ;
72 [label="gini = 0.0\nsamples = 1\nvalue = [1, 0]"] ;
70 -> 72 ;
73 [label="X[16] <= 1333.5\ngini = 0.14\nsamples = 66\nvalue = [61, 5]"] ;
63 -> 73 ;
74 [label="X[25] <= 0.5\ngini = 0.092\nsamples = 62\nvalue = [59, 3]"] ;
73 -> 74 ;
75 [label="X[4] <= 2.5\ngini = 0.5\nsamples = 4\nvalue = [2, 2]"] ;
74 -> 75 ;
76 [label="gini = 0.0\nsamples = 2\nvalue = [0, 2]"] ;
75 -> 76 ;
77 [label="gini = 0.0\nsamples = 2\nvalue = [2, 0]"] ;
75 -> 77 ;
78 [label="X[0] <= 37.0\ngini = 0.034\nsamples = 58\nvalue = [57, 1]"] ;
74 -> 78 ;
79 [label="gini = 0.0\nsamples = 55\nvalue = [55, 0]"] ;
78 -> 79 ;
80 [label="X[5] <= 1.5\ngini = 0.444\nsamples = 3\nvalue = [2, 1]"] ;
78 -> 80 ;
81 [label="gini = 0.0\nsamples = 1\nvalue = [0, 1]"] ;
80 -> 81 ;
82 [label="gini = 0.0\nsamples = 2\nvalue = [2, 0]"] ;
80 -> 82 ;
83 [label="X[16] <= 1371.5\ngini = 0.5\nsamples = 4\nvalue = [2, 2]"] ;
73 -> 83 ;
84 [label="gini = 0.0\nsamples = 2\nvalue = [0, 2]"] ;
83 -> 84 ;
85 [label="gini = 0.0\nsamples = 2\nvalue = [2, 0]"] ;
83 -> 85 ;
86 [label="X[19] <= 0.5\ngini = 0.014\nsamples = 146\nvalue = [145, 1]"] ;
38 -> 86 ;
87 [label="X[12] <= 1.0\ngini = 0.1\nsamples = 19\nvalue = [18, 1]"] ;
86 -> 87 ;
88 [label="X[4] <= 11.0\ngini = 0.5\nsamples = 2\nvalue = [1, 1]"] ;
87 -> 88 ;
89 [label="gini = 0.0\nsamples = 1\nvalue = [1, 0]"] ;
88 -> 89 ;
90 [label="gini = 0.0\nsamples = 1\nvalue = [0, 1]"] ;
88 -> 90 ;
91 [label="gini = 0.0\nsamples = 17\nvalue = [17, 0]"] ;
87 -> 91 ;
92 [label="gini = 0.0\nsamples = 127\nvalue = [127, 0]"] ;
86 -> 92 ;
93 [label="X[10] <= 0.5\ngini = 0.5\nsamples = 2\nvalue = [1, 1]"] ;
37 -> 93 ;
94 [label="gini = 0.0\nsamples = 1\nvalue = [0, 1]"] ;
93 -> 94 ;
95 [label="gini = 0.0\nsamples = 1\nvalue = [1, 0]"] ;
93 -> 95 ;
96 [label="X[17] <= 5.5\ngini = 0.218\nsamples = 161\nvalue = [141, 20]"] ;
36 -> 96 ;
97 [label="X[22] <= 2.5\ngini = 0.152\nsamples = 133\nvalue = [122, 11]"] ;
96 -> 97 ;
98 [label="X[13] <= 0.5\ngini = 0.121\nsamples = 124\nvalue = [116, 8]"] ;
97 -> 98 ;
99 [label="X[0] <= 12.5\ngini = 0.351\nsamples = 22\nvalue = [17, 5]"] ;
98 -> 99 ;
100 [label="X[0] <= 8.5\ngini = 0.444\nsamples = 6\nvalue = [2, 4]"] ;
99 -> 100 ;
101 [label="X[4] <= 5.5\ngini = 0.444\nsamples = 3\nvalue = [2, 1]"] ;
100 -> 101 ;
102 [label="gini = 0.0\nsamples = 2\nvalue = [2, 0]"] ;
101 -> 102 ;
103 [label="gini = 0.0\nsamples = 1\nvalue = [0, 1]"] ;
101 -> 103 ;
104 [label="gini = 0.0\nsamples = 3\nvalue = [0, 3]"] ;
100 -> 104 ;
105 [label="X[9] <= 69.0\ngini = 0.117\nsamples = 16\nvalue = [15, 1]"] ;
99 -> 105 ;
106 [label="gini = 0.0\nsamples = 15\nvalue = [15, 0]"] ;
105 -> 106 ;
107 [label="gini = 0.0\nsamples = 1\nvalue = [0, 1]"] ;
105 -> 107 ;
108 [label="X[0] <= 22.5\ngini = 0.057\nsamples = 102\nvalue = [99, 3]"] ;
98 -> 108 ;
109 [label="gini = 0.0\nsamples = 75\nvalue = [75, 0]"] ;
108 -> 109 ;
110 [label="X[19] <= 4.5\ngini = 0.198\nsamples = 27\nvalue = [24, 3]"] ;
108 -> 110 ;
111 [label="gini = 0.0\nsamples = 18\nvalue = [18, 0]"] ;
110 -> 111 ;
112 [label="X[19] <= 7.5\ngini = 0.444\nsamples = 9\nvalue = [6, 3]"] ;
110 -> 112 ;
113 [label="X[27] <= 4.0\ngini = 0.375\nsamples = 4\nvalue = [1, 3]"] ;
112 -> 113 ;
114 [label="gini = 0.0\nsamples = 1\nvalue = [1, 0]"] ;
113 -> 114 ;
115 [label="gini = 0.0\nsamples = 3\nvalue = [0, 3]"] ;
113 -> 115 ;
116 [label="gini = 0.0\nsamples = 5\nvalue = [5, 0]"] ;
112 -> 116 ;
117 [label="X[4] <= 8.5\ngini = 0.444\nsamples = 9\nvalue = [6, 3]"] ;
97 -> 117 ;
118 [label="gini = 0.0\nsamples = 6\nvalue = [6, 0]"] ;
117 -> 118 ;
119 [label="gini = 0.0\nsamples = 3\nvalue = [0, 3]"] ;
117 -> 119 ;
120 [label="X[29] <= 1.5\ngini = 0.436\nsamples = 28\nvalue = [19, 9]"] ;
96 -> 120 ;
121 [label="X[16] <= 499.5\ngini = 0.408\nsamples = 7\nvalue = [2, 5]"] ;
120 -> 121 ;
122 [label="gini = 0.0\nsamples = 2\nvalue = [2, 0]"] ;
121 -> 122 ;
123 [label="gini = 0.0\nsamples = 5\nvalue = [0, 5]"] ;
121 -> 123 ;
124 [label="X[15] <= 671.5\ngini = 0.308\nsamples = 21\nvalue = [17, 4]"] ;
120 -> 124 ;
125 [label="X[22] <= 0.5\ngini = 0.5\nsamples = 6\nvalue = [3, 3]"] ;
124 -> 125 ;
126 [label="gini = 0.0\nsamples = 3\nvalue = [0, 3]"] ;
125 -> 126 ;
127 [label="gini = 0.0\nsamples = 3\nvalue = [3, 0]"] ;
125 -> 127 ;
128 [label="X[2] <= 799.0\ngini = 0.124\nsamples = 15\nvalue = [14, 1]"] ;
124 -> 128 ;
129 [label="gini = 0.0\nsamples = 13\nvalue = [13, 0]"] ;
128 -> 129 ;
130 [label="X[7] <= 1.0\ngini = 0.5\nsamples = 2\nvalue = [1, 1]"] ;
128 -> 130 ;
131 [label="gini = 0.0\nsamples = 1\nvalue = [0, 1]"] ;
130 -> 131 ;
132 [label="gini = 0.0\nsamples = 1\nvalue = [1, 0]"] ;
130 -> 132 ;
133 [label="X[16] <= 113.5\ngini = 0.32\nsamples = 55\nvalue = [44, 11]"] ;
35 -> 133 ;
134 [label="gini = 0.0\nsamples = 2\nvalue = [0, 2]"] ;
133 -> 134 ;
135 [label="X[0] <= 11.5\ngini = 0.282\nsamples = 53\nvalue = [44, 9]"] ;
133 -> 135 ;
136 [label="X[29] <= 2.5\ngini = 0.492\nsamples = 16\nvalue = [9, 7]"] ;
135 -> 136 ;
137 [label="X[9] <= 58.0\ngini = 0.375\nsamples = 12\nvalue = [9, 3]"] ;
136 -> 137 ;
138 [label="X[4] <= 22.5\ngini = 0.18\nsamples = 10\nvalue = [9, 1]"] ;
137 -> 138 ;
139 [label="gini = 0.0\nsamples = 9\nvalue = [9, 0]"] ;
138 -> 139 ;
140 [label="gini = 0.0\nsamples = 1\nvalue = [0, 1]"] ;
138 -> 140 ;
141 [label="gini = 0.0\nsamples = 2\nvalue = [0, 2]"] ;
137 -> 141 ;
142 [label="gini = 0.0\nsamples = 4\nvalue = [0, 4]"] ;
136 -> 142 ;
143 [label="X[26] <= 21.5\ngini = 0.102\nsamples = 37\nvalue = [35, 2]"] ;
135 -> 143 ;
144 [label="gini = 0.0\nsamples = 35\nvalue = [35, 0]"] ;
143 -> 144 ;
145 [label="gini = 0.0\nsamples = 2\nvalue = [0, 2]"] ;
143 -> 145 ;
146 [label="X[15] <= 185.0\ngini = 0.442\nsamples = 285\nvalue = [191, 94]"] ;
0 -> 146 [labeldistance=2.5, labelangle=-45, headlabel="False"] ;
147 [label="X[2] <= 551.5\ngini = 0.401\nsamples = 54\nvalue = [15, 39]"] ;
146 -> 147 ;
148 [label="X[0] <= 18.0\ngini = 0.202\nsamples = 35\nvalue = [4, 31]"] ;
147 -> 148 ;
149 [label="X[24] <= 5.5\ngini = 0.064\nsamples = 30\nvalue = [1, 29]"] ;
148 -> 149 ;
150 [label="gini = 0.0\nsamples = 29\nvalue = [0, 29]"] ;
149 -> 150 ;
151 [label="gini = 0.0\nsamples = 1\nvalue = [1, 0]"] ;
149 -> 151 ;
152 [label="X[0] <= 24.5\ngini = 0.48\nsamples = 5\nvalue = [3, 2]"] ;
148 -> 152 ;
153 [label="gini = 0.0\nsamples = 3\nvalue = [3, 0]"] ;
152 -> 153 ;
154 [label="gini = 0.0\nsamples = 2\nvalue = [0, 2]"] ;
152 -> 154 ;
155 [label="X[16] <= 548.0\ngini = 0.488\nsamples = 19\nvalue = [11, 8]"] ;
147 -> 155 ;
156 [label="X[5] <= 3.5\ngini = 0.245\nsamples = 7\nvalue = [1, 6]"] ;
155 -> 156 ;
157 [label="gini = 0.0\nsamples = 6\nvalue = [0, 6]"] ;
156 -> 157 ;
158 [label="gini = 0.0\nsamples = 1\nvalue = [1, 0]"] ;
156 -> 158 ;
159 [label="X[2] <= 851.5\ngini = 0.278\nsamples = 12\nvalue = [10, 2]"] ;
155 -> 159 ;
160 [label="X[13] <= 0.5\ngini = 0.165\nsamples = 11\nvalue = [10, 1]"] ;
159 -> 160 ;
161 [label="gini = 0.0\nsamples = 1\nvalue = [0, 1]"] ;
160 -> 161 ;
162 [label="gini = 0.0\nsamples = 10\nvalue = [10, 0]"] ;
160 -> 162 ;
163 [label="gini = 0.0\nsamples = 1\nvalue = [0, 1]"] ;
159 -> 163 ;
164 [label="X[14] <= 1.5\ngini = 0.363\nsamples = 231\nvalue = [176, 55]"] ;
146 -> 164 ;
165 [label="X[23] <= 5.5\ngini = 0.247\nsamples = 159\nvalue = [136, 23]"] ;
164 -> 165 ;
166 [label="X[19] <= 7.5\ngini = 0.473\nsamples = 26\nvalue = [16, 10]"] ;
165 -> 166 ;
167 [label="X[16] <= 1209.5\ngini = 0.423\nsamples = 23\nvalue = [16, 7]"] ;
166 -> 167 ;
168 [label="X[0] <= 17.5\ngini = 0.291\nsamples = 17\nvalue = [14, 3]"] ;
167 -> 168 ;
169 [label="X[26] <= 0.5\ngini = 0.124\nsamples = 15\nvalue = [14, 1]"] ;
168 -> 169 ;
170 [label="gini = 0.0\nsamples = 1\nvalue = [0, 1]"] ;
169 -> 170 ;
171 [label="gini = 0.0\nsamples = 14\nvalue = [14, 0]"] ;
169 -> 171 ;
172 [label="gini = 0.0\nsamples = 2\nvalue = [0, 2]"] ;
168 -> 172 ;
173 [label="X[16] <= 1334.5\ngini = 0.444\nsamples = 6\nvalue = [2, 4]"] ;
167 -> 173 ;
174 [label="gini = 0.0\nsamples = 3\nvalue = [0, 3]"] ;
173 -> 174 ;
175 [label="X[21] <= 2.0\ngini = 0.444\nsamples = 3\nvalue = [2, 1]"] ;
173 -> 175 ;
176 [label="gini = 0.0\nsamples = 1\nvalue = [0, 1]"] ;
175 -> 176 ;
177 [label="gini = 0.0\nsamples = 2\nvalue = [2, 0]"] ;
175 -> 177 ;
178 [label="gini = 0.0\nsamples = 3\nvalue = [0, 3]"] ;
166 -> 178 ;
179 [label="X[17] <= 3.5\ngini = 0.176\nsamples = 133\nvalue = [120, 13]"] ;
165 -> 179 ;
180 [label="X[4] <= 20.5\ngini = 0.081\nsamples = 95\nvalue = [91, 4]"] ;
179 -> 180 ;
181 [label="X[6] <= 4.5\ngini = 0.024\nsamples = 81\nvalue = [80, 1]"] ;
180 -> 181 ;
182 [label="gini = 0.0\nsamples = 73\nvalue = [73, 0]"] ;
181 -> 182 ;
183 [label="X[0] <= 12.5\ngini = 0.219\nsamples = 8\nvalue = [7, 1]"] ;
181 -> 183 ;
184 [label="gini = 0.0\nsamples = 1\nvalue = [0, 1]"] ;
183 -> 184 ;
185 [label="gini = 0.0\nsamples = 7\nvalue = [7, 0]"] ;
183 -> 185 ;
186 [label="X[23] <= 11.0\ngini = 0.337\nsamples = 14\nvalue = [11, 3]"] ;
180 -> 186 ;
187 [label="X[15] <= 593.5\ngini = 0.48\nsamples = 5\nvalue = [2, 3]"] ;
186 -> 187 ;
188 [label="gini = 0.0\nsamples = 2\nvalue = [2, 0]"] ;
187 -> 188 ;
189 [label="gini = 0.0\nsamples = 3\nvalue = [0, 3]"] ;
187 -> 189 ;
190 [label="gini = 0.0\nsamples = 9\nvalue = [9, 0]"] ;
186 -> 190 ;
191 [label="X[22] <= 0.5\ngini = 0.361\nsamples = 38\nvalue = [29, 9]"] ;
179 -> 191 ;
192 [label="X[2] <= 760.0\ngini = 0.469\nsamples = 8\nvalue = [3, 5]"] ;
191 -> 192 ;
193 [label="X[2] <= 78.5\ngini = 0.278\nsamples = 6\nvalue = [1, 5]"] ;
192 -> 193 ;
194 [label="gini = 0.0\nsamples = 1\nvalue = [1, 0]"] ;
193 -> 194 ;
195 [label="gini = 0.0\nsamples = 5\nvalue = [0, 5]"] ;
193 -> 195 ;
196 [label="gini = 0.0\nsamples = 2\nvalue = [2, 0]"] ;
192 -> 196 ;
197 [label="X[17] <= 8.5\ngini = 0.231\nsamples = 30\nvalue = [26, 4]"] ;
191 -> 197 ;
198 [label="X[15] <= 1343.5\ngini = 0.137\nsamples = 27\nvalue = [25, 2]"] ;
197 -> 198 ;
199 [label="X[10] <= 0.5\ngini = 0.074\nsamples = 26\nvalue = [25, 1]"] ;
198 -> 199 ;
200 [label="gini = 0.0\nsamples = 1\nvalue = [0, 1]"] ;
199 -> 200 ;
201 [label="gini = 0.0\nsamples = 25\nvalue = [25, 0]"] ;
199 -> 201 ;
202 [label="gini = 0.0\nsamples = 1\nvalue = [0, 1]"] ;
198 -> 202 ;
203 [label="X[15] <= 522.5\ngini = 0.444\nsamples = 3\nvalue = [1, 2]"] ;
197 -> 203 ;
204 [label="gini = 0.0\nsamples = 1\nvalue = [1, 0]"] ;
203 -> 204 ;
205 [label="gini = 0.0\nsamples = 2\nvalue = [0, 2]"] ;
203 -> 205 ;
206 [label="X[28] <= 5.5\ngini = 0.494\nsamples = 72\nvalue = [40, 32]"] ;
164 -> 206 ;
207 [label="X[9] <= 23.5\ngini = 0.464\nsamples = 60\nvalue = [38, 22]"] ;
206 -> 207 ;
208 [label="gini = 0.0\nsamples = 13\nvalue = [13, 0]"] ;
207 -> 208 ;
209 [label="X[23] <= 9.5\ngini = 0.498\nsamples = 47\nvalue = [25, 22]"] ;
207 -> 209 ;
210 [label="X[2] <= 139.5\ngini = 0.473\nsamples = 26\nvalue = [10, 16]"] ;
209 -> 210 ;
211 [label="gini = 0.0\nsamples = 3\nvalue = [3, 0]"] ;
210 -> 211 ;
212 [label="X[4] <= 4.5\ngini = 0.423\nsamples = 23\nvalue = [7, 16]"] ;
210 -> 212 ;
213 [label="X[15] <= 593.0\ngini = 0.497\nsamples = 13\nvalue = [7, 6]"] ;
212 -> 213 ;
214 [label="X[6] <= 4.5\ngini = 0.346\nsamples = 9\nvalue = [7, 2]"] ;
213 -> 214 ;
215 [label="gini = 0.0\nsamples = 7\nvalue = [7, 0]"] ;
214 -> 215 ;
216 [label="gini = 0.0\nsamples = 2\nvalue = [0, 2]"] ;
214 -> 216 ;
217 [label="gini = 0.0\nsamples = 4\nvalue = [0, 4]"] ;
213 -> 217 ;
218 [label="gini = 0.0\nsamples = 10\nvalue = [0, 10]"] ;
212 -> 218 ;
219 [label="X[7] <= 0.5\ngini = 0.408\nsamples = 21\nvalue = [15, 6]"] ;
209 -> 219 ;
220 [label="X[24] <= 2.5\ngini = 0.444\nsamples = 9\nvalue = [3, 6]"] ;
219 -> 220 ;
221 [label="gini = 0.0\nsamples = 6\nvalue = [0, 6]"] ;
220 -> 221 ;
222 [label="gini = 0.0\nsamples = 3\nvalue = [3, 0]"] ;
220 -> 222 ;
223 [label="gini = 0.0\nsamples = 12\nvalue = [12, 0]"] ;
219 -> 223 ;
224 [label="X[9] <= 56.0\ngini = 0.278\nsamples = 12\nvalue = [2, 10]"] ;
206 -> 224 ;
225 [label="gini = 0.0\nsamples = 10\nvalue = [0, 10]"] ;
224 -> 225 ;
226 [label="gini = 0.0\nsamples = 2\nvalue = [2, 0]"] ;
224 -> 226 ;
}